<?xml version="1.0"?>
<opencv_storage>
<stage4>
  <maxWeakCount>8</maxWeakCount>
  <stageThreshold>-1.2820450067520142e+00</stageThreshold>
  <weakClassifiers>
    <_>
      <internalNodes>
        0 -1 299322 1.3179091736674309e-02</internalNodes>
      <leafValues>
        -4.2153847217559814e-01 7.3333334922790527e-01</leafValues></_>
    <_>
      <internalNodes>
        0 -1 795434 -4.9276081845164299e-03</internalNodes>
      <leafValues>
        5.7598733901977539e-01 -5.9013307094573975e-01</leafValues></_>
    <_>
      <internalNodes>
        0 -1 853261 7.7374570537358522e-04</internalNodes>
      <leafValues>
        3.2820430397987366e-01 -8.9257812500000000e-01</leafValues></_>
    <_>
      <internalNodes>
        0 -1 232823 -1.9084727391600609e-02</internalNodes>
      <leafValues>
        7.5213801860809326e-01 -4.2229104042053223e-01</leafValues></_>
    <_>
      <internalNodes>
        0 -1 444732 1.6390509903430939e-02</internalNodes>
      <leafValues>
        -4.9329251050949097e-01 7.2301536798477173e-01</leafValues></_>
    <_>
      <internalNodes>
        0 -1 1131797 -1.4576656743884087e-02</internalNodes>
      <leafValues>
        7.9211109876632690e-01 -3.5483780503273010e-01</leafValues></_>
    <_>
      <internalNodes>
        0 -1 130542 -1.9432620320003480e-04</internalNodes>
      <leafValues>
        -8.2196646928787231e-01 4.1789257526397705e-01</leafValues></_>
    <_>
      <internalNodes>
        0 -1 1195620 -7.0046074688434601e-04</internalNodes>
      <leafValues>
        -8.8165003061294556e-01 3.1986165046691895e-01</leafValues></_></weakClassifiers></stage4>
</opencv_storage>
