<?xml version="1.0"?>
<opencv_storage>
<stage13>
  <maxWeakCount>8</maxWeakCount>
  <stageThreshold>-1.1107491254806519e+00</stageThreshold>
  <weakClassifiers>
    <_>
      <internalNodes>
        0 -1 10675 -2.6229666545987129e-03</internalNodes>
      <leafValues>
        -9.4545453786849976e-01 4.5294117927551270e-01</leafValues></_>
    <_>
      <internalNodes>
        0 -1 1241482 -3.5767597146332264e-03</internalNodes>
      <leafValues>
        5.8270090818405151e-01 -3.9874830842018127e-01</leafValues></_>
    <_>
      <internalNodes>
        0 -1 1066460 -1.0376296006143093e-02</internalNodes>
      <leafValues>
        3.2211887836456299e-01 -8.7536263465881348e-01</leafValues></_>
    <_>
      <internalNodes>
        0 -1 1433887 7.2600302519276738e-04</internalNodes>
      <leafValues>
        -5.8313888311386108e-01 4.2013826966285706e-01</leafValues></_>
    <_>
      <internalNodes>
        0 -1 1081608 -2.0398905035108328e-03</internalNodes>
      <leafValues>
        6.0754525661468506e-01 -4.0239620208740234e-01</leafValues></_>
    <_>
      <internalNodes>
        0 -1 720232 5.6635461078258231e-05</internalNodes>
      <leafValues>
        -8.6805391311645508e-01 2.6818683743476868e-01</leafValues></_>
    <_>
      <internalNodes>
        0 -1 49193 9.7061792621389031e-04</internalNodes>
      <leafValues>
        1.7903690040111542e-01 -9.5574706792831421e-01</leafValues></_>
    <_>
      <internalNodes>
        0 -1 1626745 6.7321350798010826e-04</internalNodes>
      <leafValues>
        1.8749129772186279e-01 -8.8052880764007568e-01</leafValues></_></weakClassifiers></stage13>
</opencv_storage>
